SNNS network definition file V1.4-3D
generated at Tue Sep 11 12:35:50 2001

network name : 1sq
source files :
no. of units : 18
no. of connections : 45
no. of unit types : 0
no. of site types : 0


learning function : Std_Backpropagation
update function   : Random_Permutation


unit default section :

act      | bias     | st | subnet | layer | act func     | out func
---------|----------|----|--------|-------|--------------|-------------
 0.00000 |  0.00000 | h  |      0 |     1 | Act_Logistic | Out_Identity 
---------|----------|----|--------|-------|--------------|-------------


unit definition section :

no. | typeName | unitName | act      | bias     | st | position | act func | out func | sites
----|----------|----------|----------|----------|----|----------|----------|----------|-------
  1 |          |          |  0.39617 | -0.30896 | i  |  2, 2, 2 |||
  2 |          |          |  0.35468 | -0.09987 | i  |  2, 3, 2 |||
  3 |          |          |  0.16582 | -0.91201 | h  |  5, 2, 2 |||
  4 |          |          |  0.30483 | -1.23169 | h  |  5, 3, 2 |||
  5 |          |          |  0.15259 | -1.03322 | h  |  5, 4, 2 |||
  6 |          |          |  0.83262 |  3.81465 | h  |  5, 5, 2 |||
  7 |          |          |  0.19178 | -0.67454 | h  |  5, 6, 2 |||
  8 |          |          |  0.30813 |  0.13610 | h  |  5, 7, 2 |||
  9 |          |          |  0.99433 |  7.87281 | h  |  5, 8, 2 |||
 10 |          |          |  0.15260 | -1.03434 | h  |  5, 9, 2 |||
 11 |          |          |  0.01257 | -8.75983 | h  |  5,10, 2 |||
 12 |          |          |  0.15642 | -0.98967 | h  |  5,11, 2 |||
 13 |          |          |  0.38591 |  8.02079 | h  |  5,12, 2 |||
 14 |          |          |  0.72176 |  2.56870 | h  |  5,13, 2 |||
 15 |          |          |  0.08677 | -0.63492 | h  |  5,14, 2 |||
 16 |          |          |  0.67243 |  2.18545 | h  |  5,15, 2 |||
 17 |          |          |  0.30410 |  0.11973 | h  |  5,16, 2 |||
 18 |          |          |  0.98579 | -8.67101 | o  |  8, 2, 2 |||
----|----------|----------|----------|----------|----|----------|----------|----------|-------


connection definition section :

target | site | source:weight
-------|------|---------------------------------------------------------------------------------------------------------------------
     3 |      |  1:-0.61511,  2:-1.29652
     4 |      |  1: 0.46281,  2: 0.63132
     5 |      |  1:-0.56203,  2:-1.29282
     6 |      |  1:-0.93241,  2:-5.19033
     7 |      |  1:-0.62094,  2:-1.46018
     8 |      |  1:-0.82684,  2:-1.74074
     9 |      |  1: 5.80744,  2:-14.11505
    10 |      |  1:-0.64940,  2:-1.19191
    11 |      |  1:13.08891,  2:-2.22569
    12 |      |  1:-0.63248,  2:-1.25426
    13 |      |  1:-10.35241,  2:-12.36195
    14 |      |  1:-0.89491,  2:-3.55505
    15 |      |  1:-2.22943,  2:-2.35598
    16 |      |  1:-0.87514,  2:-3.15631
    17 |      |  1:-0.87664,  2:-1.69245
    18 |      |  3: 0.79401,  4:-1.21043,  5: 0.85112,  6: 3.69096,  7: 0.94192,  8: 1.02491,  9:13.02242, 10: 0.73819, 11:-16.06589,
                12: 0.82782, 13:-17.04000, 14: 2.21480, 15:-1.55400, 16: 1.89527, 17: 0.97809
-------|------|---------------------------------------------------------------------------------------------------------------------
