0.007080
0.007147
0.005505
0.005491
0.003259
0.006662
0.006260
0.006179
0.005160
0.004176
0.004783
0.006916
0.007664
0.007415
0.005376
0.006240
0.004703
0.006014
0.006736
-0.014261
-0.019503
-0.015960
-0.016710
-0.017641
0.005383
0.004490
0.005033
0.007963
0.005009
0.004795
0.008151
0.005941
-0.017193
-0.047957
-0.047848
-0.049067
-0.054017
-0.047840
-0.020175
0.004085
0.006705
0.006371
0.005840
0.006544
0.006796
-0.013942
-0.046093
-0.045341
-0.045821
-0.049243
-0.046102
-0.043865
-0.046568
-0.012776
0.005052
0.005844
0.003997
0.004652
-0.019392
-0.050310
-0.049907
-0.048531
-0.047114
-0.047115
-0.050170
-0.048890
-0.046614
-0.045142
-0.022675
0.005871
0.007852
-0.018938
-0.052122
-0.049541
-0.047924
-0.046064
-0.047372
-0.047885
-0.045482
-0.050203
-0.048773
-0.045710
-0.050436
-0.017335
0.007205
-0.017982
-0.047942
-0.047417
-0.047834
-0.040464
-0.045141
-0.048810
-0.047093
-0.048393
-0.046094
-0.045732
-0.053499
-0.017364
0.008055
-0.017546
-0.051911
-0.050097
-0.047217
-0.043901
-0.048075
-0.047365
-0.046135
-0.045555
-0.048878
-0.047513
-0.050671
-0.019645
0.004829
-0.015543
-0.050258
-0.046195
-0.048249
-0.049014
-0.046821
-0.048287
-0.047053
-0.046830
-0.045786
-0.048869
-0.047193
-0.015893
0.004512
0.005676
-0.018119
-0.045924
-0.046159
-0.045961
-0.049247
-0.044427
-0.045171
-0.047205
-0.042231
-0.047604
-0.019874
0.006587
0.007231
0.007360
0.008061
-0.014427
-0.044699
-0.052135
-0.047687
-0.047600
-0.047946
-0.046692
-0.047347
-0.015664
0.005467
0.008147
0.004391
0.007220
0.003988
0.006303
-0.022572
-0.050385
-0.048159
-0.052125
-0.050565
-0.048549
-0.017593
0.005464
0.005028
0.007065
0.004106
0.005675
0.003821
0.007461
0.004487
-0.018580
-0.017813
-0.018421
-0.016722
-0.020371
0.005623
0.004856
0.004193
0.004812
0.004833
0.004346
0.004380
0.005879
0.006795
0.003259
0.007317
0.006059
0.006680
0.007912
0.006561
0.005676
0.003317
0.006773
-0.008465
-0.004367
-0.007205
-0.004343
-0.008822
-0.006036
-0.006478
-0.008937
-0.007679
-0.006677
-0.008746
-0.006819
-0.007610
-0.006605
-0.004615
-0.006962
-0.006503
-0.005821
-0.007576
0.016746
0.015417
0.015770
0.016791
0.014279
-0.004857
-0.009216
-0.007236
-0.008202
-0.008596
-0.007232
-0.005890
-0.006703
0.014198
0.060433
0.060066
0.056029
0.060785
0.060972
0.016511
-0.006414
-0.006040
-0.004551
-0.005884
-0.006495
-0.008881
0.014593
0.060933
0.055024
0.061630
0.058560
0.057272
0.056216
0.058769
0.017432
-0.007713
-0.006709
-0.009018
-0.004987
0.017447
0.059672
0.059019
0.056928
0.062220
0.058803
0.061505
0.060591
0.060277
0.058192
0.020515
-0.004483
-0.004801
0.017329
0.057961
0.058739
0.060695
0.059453
0.061851
0.060033
0.058813
0.059474
0.057625
0.055739
0.060352
0.014421
-0.007439
0.013502
0.059699
0.057489
0.062566
0.053011
0.054940
0.059800
0.061519
0.061014
0.055588
0.059686
0.061812
0.015486
-0.008530
0.016692
0.059468
0.061365
0.060494
0.055684
0.061107
0.061387
0.056367
0.058936
0.062667
0.059998
0.060060
0.014092
-0.008801
0.014654
0.059357
0.056932
0.061404
0.060341
0.058663
0.059401
0.058192
0.061875
0.055983
0.057772
0.056325
0.017305
-0.006173
-0.006841
0.015623
0.059567
0.059433
0.061930
0.059931
0.058065
0.056445
0.059299
0.059864
0.057469
0.017198
-0.009284
-0.008760
-0.005756
-0.004895
0.015344
0.056554
0.061994
0.058700
0.062768
0.060799
0.059654
0.061992
0.016345
-0.006177
-0.005131
-0.004607
-0.005643
-0.004968
-0.009339
0.018630
0.059324
0.055492
0.057716
0.059351
0.061135
0.015404
-0.006721
-0.005353
-0.009270
-0.005375
-0.005358
-0.006801
-0.006448
-0.008463
0.018202
0.016187
0.012678
0.015694
0.016216
-0.006421
-0.007746
-0.007213
-0.005275
-0.005038
-0.007981
-0.007924
-0.006995
-0.008684
-0.006183
-0.007882
-0.006419
-0.009040
-0.008285
-0.008399
-0.005292
-0.005304
-0.006422
0.007306
0.007090
0.008891
0.005361
0.008906
0.005207
0.007160
0.004244
0.004973
0.005326
0.005627
0.004648
0.005396
0.007869
0.005746
0.005129
0.008834
0.006566
0.004782
-0.020049
-0.021639
-0.015908
-0.019879
-0.019338
0.004375
0.007169
0.007438
0.004720
0.005120
0.007026
0.004119
0.007456
-0.021492
-0.065373
-0.063968
-0.065947
-0.068868
-0.064262
-0.018845
0.004051
0.008058
0.005174
0.007728
0.004565
0.004233
-0.012742
-0.064498
-0.062153
-0.066481
-0.067416
-0.064112
-0.063060
-0.062728
-0.017438
0.003972
0.008442
0.004196
0.006758
-0.021370
-0.066074
-0.066750
-0.066913
-0.063416
-0.065012
-0.063827
-0.066049
-0.067562
-0.065771
-0.022394
0.004411
0.005135
-0.017867
-0.066047
-0.065309
-0.064931
-0.065275
-0.068779
-0.065745
-0.065092
-0.067859
-0.067325
-0.063716
-0.068234
-0.021473
0.005040
-0.016872
-0.066807
-0.061927
-0.067832
-0.060311
-0.060741
-0.068013
-0.066067
-0.067449
-0.063143
-0.065779
-0.066542
-0.020610
0.004290
-0.022094
-0.065367
-0.065043
-0.066156
-0.064007
-0.067770
-0.066969
-0.066247
-0.064201
-0.068111
-0.066985
-0.067485
-0.020932
0.004633
-0.021405
-0.064401
-0.063207
-0.067864
-0.065723
-0.067246
-0.066272
-0.062510
-0.065078
-0.066702
-0.060983
-0.063648
-0.019294
0.008903
0.008851
-0.016155
-0.066200
-0.068622
-0.063294
-0.064574
-0.064692
-0.064422
-0.064418
-0.063314
-0.064153
-0.021781
0.008383
0.008813
0.006955
0.005594
-0.019056
-0.064420
-0.070193
-0.065668
-0.065913
-0.066867
-0.064902
-0.066780
-0.015717
0.006678
0.004808
0.006620
0.004274
0.006189
0.004815
-0.020987
-0.068418
-0.065415
-0.065016
-0.067709
-0.066239
-0.015307
0.008472
0.004912
0.005711
0.005423
0.004539
0.004014
0.004607
0.006922
-0.021593
-0.020862
-0.020036
-0.021769
-0.020332
0.004135
0.006377
0.008592
0.008356
0.004372
0.008233
0.007275
0.005753
0.007266
0.007810
0.005226
0.006555
0.007664
0.005317
0.008518
0.005562
0.004746
0.005537
-0.012132
-0.013137
-0.011799
-0.011284
-0.014236
-0.012418
-0.011427
-0.012210
-0.013282
-0.013945
-0.014175
-0.013595
-0.010087
-0.013998
-0.011769
-0.013574
-0.012078
-0.014737
-0.009793
0.030020
0.037391
0.031448
0.032249
0.030564
-0.014246
-0.012385
-0.010226
-0.014320
-0.010177
-0.013104
-0.011437
-0.012726
0.035434
0.074360
0.070597
0.070483
0.079056
0.073163
0.035693
-0.012467
-0.012913
-0.011297
-0.012564
-0.011283
-0.009885
0.022828
0.069748
0.062805
0.067874
0.070325
0.064874
0.064401
0.065546
0.027072
-0.012213
-0.013237
-0.013105
-0.010515
0.035428
0.069756
0.072081
0.067792
0.068098
0.069372
0.069847
0.068302
0.069097
0.067113
0.038025
-0.010199
-0.012496
0.034109
0.072994
0.070286
0.065238
0.068846
0.068604
0.068367
0.065895
0.069507
0.065307
0.063771
0.074888
0.031685
-0.013049
0.030347
0.074396
0.065954
0.067166
0.061763
0.065687
0.069974
0.072689
0.073897
0.066860
0.069076
0.077889
0.029263
-0.011206
0.033338
0.075055
0.069692
0.068643
0.067410
0.071066
0.069518
0.071343
0.065194
0.067332
0.069293
0.073335
0.036869
-0.011313
0.031961
0.071574
0.065882
0.065194
0.069061
0.069357
0.067341
0.065818
0.067979
0.066055
0.070515
0.075689
0.030672
-0.012118
-0.013366
0.031247
0.064675
0.071781
0.069069
0.067856
0.063612
0.063097
0.072335
0.061350
0.069526
0.033016
-0.010105
-0.012649
-0.013499
-0.013631
0.029328
0.066140
0.075946
0.066868
0.066903
0.070238
0.070850
0.066494
0.025660
-0.012232
-0.013660
-0.011660
-0.010280
-0.012391
-0.014061
0.037813
0.076364
0.072952
0.072836
0.071788
0.075223
0.026743
-0.011398
-0.010465
-0.011379
-0.014230
-0.012474
-0.014214
-0.012211
-0.010929
0.031276
0.035597
0.030867
0.034682
0.034077
-0.013764
-0.009951
-0.013550
-0.010627
-0.010026
-0.010853
-0.011614
-0.009977
-0.011052
-0.011186
-0.012389
-0.014705
-0.011603
-0.012562
-0.010625
-0.012852
-0.013186
-0.012453
0.004289
0.000054
0.001589
0.003166
0.001159
0.001809
0.003807
0.003755
0.003508
0.000694
0.000032
0.001625
0.004452
0.003218
0.004842
0.001727
0.003609
0.000447
-0.000058
-0.008476
-0.009387
-0.004215
-0.008724
-0.003770
0.002863
0.000322
0.001839
0.001156
0.001227
0.001789
-0.000092
0.004806
-0.008022
-0.029366
-0.032922
-0.028027
-0.030909
-0.029517
-0.004150
0.002514
0.003473
0.001522
0.000668
0.000919
0.002688
-0.008934
-0.031837
-0.033952
-0.031575
-0.033531
-0.030402
-0.029180
-0.034519
-0.008857
0.000445
0.002395
0.000785
0.004769
-0.006593
-0.034600
-0.032739
-0.031035
-0.035584
-0.034232
-0.033894
-0.031030
-0.033335
-0.035158
-0.009097
0.002921
0.003178
-0.008788
-0.031940
-0.033461
-0.032185
-0.032332
-0.033898
-0.031213
-0.032148
-0.035293
-0.033571
-0.033531
-0.029664
-0.005480
0.002546
-0.005012
-0.031773
-0.031687
-0.031467
-0.031948
-0.030330
-0.035510
-0.033293
-0.035572
-0.030412
-0.033063
-0.033483
-0.007947
0.000300
-0.006039
-0.030366
-0.032886
-0.032671
-0.030686
-0.036644
-0.033415
-0.029945
-0.035483
-0.033380
-0.031355
-0.030644
-0.007588
0.001786
-0.005260
-0.031163
-0.033538
-0.031094
-0.030844
-0.033295
-0.032102
-0.029845
-0.032844
-0.032755
-0.032072
-0.029962
-0.007256
0.001045
0.002215
-0.008373
-0.033134
-0.030633
-0.031567
-0.033625
-0.031258
-0.032819
-0.032694
-0.033537
-0.032459
-0.009173
0.001972
0.001116
0.000012
0.002463
-0.006778
-0.031590
-0.033369
-0.033273
-0.033691
-0.030211
-0.034127
-0.035786
-0.006994
0.003472
0.003097
-0.000117
0.003614
0.000519
0.003247
-0.005740
-0.033113
-0.031797
-0.030642
-0.033206
-0.029436
-0.005151
0.002015
0.003153
0.000873
0.004280
0.000994
-0.000048
0.001426
0.001843
-0.004588
-0.005376
-0.008728
-0.008369
-0.004682
0.003809
0.004362
0.003101
0.001391
0.003234
0.001520
0.002339
0.001904
0.002897
0.002592
0.003942
0.004236
0.001892
0.002438
0.004584
0.002624
0.002310
0.001887
1.695527
-2.701133
2.411113
-2.888973
1.087798
-0.239252
0.389163
-0.724885
-0.284855
-0.321204
-2.111473
2.117987
-2.746227
3.084200
-1.232350
-0.132713
0.077111
-0.425360
-0.742444
-0.218548
0.000000
0.000000
0.000000
0.000000
0.000000
0.000000
0.000000
0.000000
0.000000
0.000000
0.000000
0.000000
0.000000
0.000000
0.000000
0.000000
0.000000
0.000000
0.000000
0.000000
0.000000
0.000000
0.000000
0.000000
0.000000
0.000000
0.000000
0.000000
0.000000
0.000000
0.000000
0.000000
0.000000
0.000000
0.000000
0.000000
0.000000
0.000000
0.000000
0.000000
0.000000
0.000000
0.000000
0.000000
0.000000
0.000000
0.000000
0.000000
0.000000
0.000000
0.000000
0.000000
0.000000
0.000000
0.000000
0.000000
0.000000
0.000000
0.000000
0.000000
0.000000
0.000000
0.000000
0.000000
0.000000
0.000000
0.000000
0.000000
0.000000
0.000000
0.000000
0.000000
0.000000
0.000000
0.000000
0.000000
0.000000
0.000000
0.000000
0.000000
0.000000
0.000000
0.000000
0.000000
0.000000
0.000000
0.000000
0.000000
0.000000
0.000000
0.000000
0.000000
0.000000
0.000000
0.000000
0.000000
0.000000
0.000000
0.000000
0.000000
0.000000
0.000000
0.000000
0.000000
0.000000
0.000000
0.000000
0.000000
0.000000
0.000000
0.000000
0.000000
0.000000
0.000000
0.000000
0.000000
0.000000
0.000000
0.000000
0.000000
0.000000
0.000000
0.000000
0.000000
0.000000
0.000000
0.000000
0.000000
0.000000
0.000000
0.000000
0.000000
0.000000
0.000000
0.000000
0.000000
0.000000
0.000000
0.000000
0.000000
0.000000
0.000000
0.000000
0.000000
0.000000
0.000000
0.000000
0.000000
0.000000
0.000000
0.000000
0.000000
0.000000
0.000000
0.000000
0.000000
0.000000
0.000000
0.000000
0.000000
0.000000
0.000000
0.000000
0.000000
0.000000
0.000000
0.000000
0.000000
0.000000
0.000000
0.000000
0.000000
0.000000
0.000000
0.000000
0.000000
0.000000
0.000000
0.000000
0.000000
0.000000
0.000000
0.000000
0.000000
0.000000
0.000000
0.000000
0.000000
0.000000
0.000000
0.000000
0.000000
0.000000
0.000000
0.000000
0.000000
2.073559
-2.425074
2.320437
-4.373638
0.857552
-1.854428
-0.802137
-2.294468
-0.526376
